digraph Tree {
node [shape=box] ;
0 [label="SJ=1 <= 0.5\nentropy = 0.998\nsamples = 4785\nvalue = [2511, 2274]"] ;
1 [label="LG=1 <= 0.5\nentropy = 0.79\nsamples = 3018\nvalue = [2303, 715]"] ;
0 -> 1 [labeldistance=2.5, labelangle=45, headlabel="True"] ;
2 [label="NL=1 <= 0.5\nentropy = 0.591\nsamples = 2457\nvalue = [2107, 350]"] ;
1 -> 2 ;
3 [label="TL=0 <= 0.5\nentropy = 0.232\nsamples = 1194\nvalue = [1149, 45]"] ;
2 -> 3 ;
4 [label="TL=1 <= 0.5\nentropy = 0.918\nsamples = 6\nvalue = [2, 4]"] ;
3 -> 4 ;
5 [label="entropy = 0.0\nsamples = 1\nvalue = [0, 1]"] ;
4 -> 5 ;
6 [label="entropy = 0.971\nsamples = 5\nvalue = [2, 3]"] ;
4 -> 6 ;
7 [label="WB=0 <= 0.5\nentropy = 0.217\nsamples = 1188\nvalue = [1147, 41]"] ;
3 -> 7 ;
8 [label="SB=0 <= 0.5\nentropy = 0.811\nsamples = 4\nvalue = [1, 3]"] ;
7 -> 8 ;
9 [label="entropy = 0.0\nsamples = 1\nvalue = [1, 0]"] ;
8 -> 9 ;
10 [label="entropy = 0.0\nsamples = 3\nvalue = [0, 3]"] ;
8 -> 10 ;
11 [label="SB=0 <= 0.5\nentropy = 0.205\nsamples = 1184\nvalue = [1146, 38]"] ;
7 -> 11 ;
12 [label="entropy = 0.544\nsamples = 40\nvalue = [35, 5]"] ;
11 -> 12 ;
13 [label="entropy = 0.189\nsamples = 1144\nvalue = [1111, 33]"] ;
11 -> 13 ;
14 [label="TL=0 <= 0.5\nentropy = 0.798\nsamples = 1263\nvalue = [958, 305]"] ;
2 -> 14 ;
15 [label="TL=1 <= 0.5\nentropy = 0.345\nsamples = 31\nvalue = [2, 29]"] ;
14 -> 15 ;
16 [label="entropy = 0.0\nsamples = 9\nvalue = [0, 9]"] ;
15 -> 16 ;
17 [label="SB=1 <= 0.5\nentropy = 0.439\nsamples = 22\nvalue = [2, 20]"] ;
15 -> 17 ;
18 [label="WB=0 <= 0.5\nentropy = 0.469\nsamples = 20\nvalue = [2, 18]"] ;
17 -> 18 ;
19 [label="entropy = 0.0\nsamples = 2\nvalue = [0, 2]"] ;
18 -> 19 ;
20 [label="entropy = 0.503\nsamples = 18\nvalue = [2, 16]"] ;
18 -> 20 ;
21 [label="entropy = 0.0\nsamples = 2\nvalue = [0, 2]"] ;
17 -> 21 ;
22 [label="WB=1 <= 0.5\nentropy = 0.767\nsamples = 1232\nvalue = [956, 276]"] ;
14 -> 22 ;
23 [label="SB=0 <= 0.5\nentropy = 0.747\nsamples = 1202\nvalue = [946, 256]"] ;
22 -> 23 ;
24 [label="entropy = 0.547\nsamples = 95\nvalue = [83, 12]"] ;
23 -> 24 ;
25 [label="entropy = 0.761\nsamples = 1107\nvalue = [863, 244]"] ;
23 -> 25 ;
26 [label="entropy = 0.918\nsamples = 30\nvalue = [10, 20]"] ;
22 -> 26 ;
27 [label="TL=0 <= 0.5\nentropy = 0.934\nsamples = 561\nvalue = [196, 365]"] ;
1 -> 27 ;
28 [label="entropy = 0.0\nsamples = 62\nvalue = [0, 62]"] ;
27 -> 28 ;
29 [label="NL=1 <= 0.5\nentropy = 0.967\nsamples = 499\nvalue = [196, 303]"] ;
27 -> 29 ;
30 [label="SB=1 <= 0.5\nentropy = 0.884\nsamples = 53\nvalue = [37, 16]"] ;
29 -> 30 ;
31 [label="WB=1 <= 0.5\nentropy = 0.811\nsamples = 44\nvalue = [33, 11]"] ;
30 -> 31 ;
32 [label="entropy = 0.782\nsamples = 43\nvalue = [33, 10]"] ;
31 -> 32 ;
33 [label="entropy = 0.0\nsamples = 1\nvalue = [0, 1]"] ;
31 -> 33 ;
34 [label="entropy = 0.991\nsamples = 9\nvalue = [4, 5]"] ;
30 -> 34 ;
35 [label="WB=1 <= 0.5\nentropy = 0.94\nsamples = 446\nvalue = [159, 287]"] ;
29 -> 35 ;
36 [label="SB=0 <= 0.5\nentropy = 0.963\nsamples = 385\nvalue = [149, 236]"] ;
35 -> 36 ;
37 [label="entropy = 0.977\nsamples = 34\nvalue = [20, 14]"] ;
36 -> 37 ;
38 [label="entropy = 0.949\nsamples = 351\nvalue = [129, 222]"] ;
36 -> 38 ;
39 [label="SB=0 <= 0.5\nentropy = 0.644\nsamples = 61\nvalue = [10, 51]"] ;
35 -> 39 ;
40 [label="entropy = 0.0\nsamples = 3\nvalue = [0, 3]"] ;
39 -> 40 ;
41 [label="entropy = 0.663\nsamples = 58\nvalue = [10, 48]"] ;
39 -> 41 ;
42 [label="NL=0 <= 0.5\nentropy = 0.523\nsamples = 1767\nvalue = [208, 1559]"] ;
0 -> 42 [labeldistance=2.5, labelangle=-45, headlabel="False"] ;
43 [label="LG=1 <= 0.5\nentropy = 0.393\nsamples = 1564\nvalue = [121, 1443]"] ;
42 -> 43 ;
44 [label="TL=0 <= 0.5\nentropy = 0.601\nsamples = 614\nvalue = [90, 524]"] ;
43 -> 44 ;
45 [label="entropy = 0.0\nsamples = 111\nvalue = [0, 111]"] ;
44 -> 45 ;
46 [label="SB=0 <= 0.5\nentropy = 0.678\nsamples = 503\nvalue = [90, 413]"] ;
44 -> 46 ;
47 [label="WB=0 <= 0.5\nentropy = 0.935\nsamples = 37\nvalue = [13, 24]"] ;
46 -> 47 ;
48 [label="entropy = 0.0\nsamples = 2\nvalue = [0, 2]"] ;
47 -> 48 ;
49 [label="entropy = 0.952\nsamples = 35\nvalue = [13, 22]"] ;
47 -> 49 ;
50 [label="WB=0 <= 0.5\nentropy = 0.647\nsamples = 466\nvalue = [77, 389]"] ;
46 -> 50 ;
51 [label="entropy = 0.422\nsamples = 35\nvalue = [3, 32]"] ;
50 -> 51 ;
52 [label="entropy = 0.662\nsamples = 431\nvalue = [74, 357]"] ;
50 -> 52 ;
53 [label="WB=0 <= 0.5\nentropy = 0.207\nsamples = 950\nvalue = [31, 919]"] ;
43 -> 53 ;
54 [label="TL=0 <= 0.5\nentropy = 0.046\nsamples = 199\nvalue = [1, 198]"] ;
53 -> 54 ;
55 [label="entropy = 0.0\nsamples = 37\nvalue = [0, 37]"] ;
54 -> 55 ;
56 [label="SB=0 <= 0.5\nentropy = 0.054\nsamples = 162\nvalue = [1, 161]"] ;
54 -> 56 ;
57 [label="entropy = 0.0\nsamples = 10\nvalue = [0, 10]"] ;
56 -> 57 ;
58 [label="entropy = 0.057\nsamples = 152\nvalue = [1, 151]"] ;
56 -> 58 ;
59 [label="TL=0 <= 0.5\nentropy = 0.242\nsamples = 751\nvalue = [30, 721]"] ;
53 -> 59 ;
60 [label="TL=1 <= 0.5\nentropy = 0.1\nsamples = 154\nvalue = [2, 152]"] ;
59 -> 60 ;
61 [label="entropy = 0.0\nsamples = 31\nvalue = [0, 31]"] ;
60 -> 61 ;
62 [label="SB=1 <= 0.5\nentropy = 0.12\nsamples = 123\nvalue = [2, 121]"] ;
60 -> 62 ;
63 [label="entropy = 0.124\nsamples = 118\nvalue = [2, 116]"] ;
62 -> 63 ;
64 [label="entropy = 0.0\nsamples = 5\nvalue = [0, 5]"] ;
62 -> 64 ;
65 [label="SB=1 <= 0.5\nentropy = 0.273\nsamples = 597\nvalue = [28, 569]"] ;
59 -> 65 ;
66 [label="entropy = 0.262\nsamples = 562\nvalue = [25, 537]"] ;
65 -> 66 ;
67 [label="entropy = 0.422\nsamples = 35\nvalue = [3, 32]"] ;
65 -> 67 ;
68 [label="TL=0 <= 0.5\nentropy = 0.985\nsamples = 203\nvalue = [87, 116]"] ;
42 -> 68 ;
69 [label="entropy = 0.0\nsamples = 35\nvalue = [0, 35]"] ;
68 -> 69 ;
70 [label="LG=1 <= 0.5\nentropy = 0.999\nsamples = 168\nvalue = [87, 81]"] ;
68 -> 70 ;
71 [label="WB=0 <= 0.5\nentropy = 0.965\nsamples = 118\nvalue = [72, 46]"] ;
70 -> 71 ;
72 [label="entropy = 0.0\nsamples = 2\nvalue = [0, 2]"] ;
71 -> 72 ;
73 [label="SB=1 <= 0.5\nentropy = 0.958\nsamples = 116\nvalue = [72, 44]"] ;
71 -> 73 ;
74 [label="entropy = 0.954\nsamples = 104\nvalue = [65, 39]"] ;
73 -> 74 ;
75 [label="entropy = 0.98\nsamples = 12\nvalue = [7, 5]"] ;
73 -> 75 ;
76 [label="SB=1 <= 0.5\nentropy = 0.881\nsamples = 50\nvalue = [15, 35]"] ;
70 -> 76 ;
77 [label="WB=1 <= 0.5\nentropy = 0.918\nsamples = 45\nvalue = [15, 30]"] ;
76 -> 77 ;
78 [label="entropy = 0.947\nsamples = 41\nvalue = [15, 26]"] ;
77 -> 78 ;
79 [label="entropy = 0.0\nsamples = 4\nvalue = [0, 4]"] ;
77 -> 79 ;
80 [label="entropy = 0.0\nsamples = 5\nvalue = [0, 5]"] ;
76 -> 80 ;
}